#define MAX_NUM_OF_LAYER_DIM    10

uint16_t baseline_layer[][MAX_NUM_OF_LAYER_DIM] = {
	{ 28, 28, 1, 1, 1, 0, },
	{ 3, 3, 1, 2, 1, 1, 0, },
	{ 3, 3, 2, 4, 1, 1, 0, },
	{ 3, 3, 4, 8, 1, 1, 0, },
	{ 64, 0, },
	{ 128, 0, },
	{ 10, 0, },
};

#pragma PERSISTENT(baseline_weights)
_q baseline_weights[] = {
	149, 43, 30, 63, 52, 136, 160, 152, 202, -275, -141, 2, -150, -187, -158, 262, 178, 81, 45, 59, 
	181, -94, -71, -38, -47, -110, -96, -39, -44, 2, 112, 97, -87, 81, 141, 112, 3, 27, 5, 46, 
	-76, -72, 78, 55, 106, 16, 8, 39, -72, 77, 104, -20, 87, 49, 42, 122, 147, 26, 5, 18, 
	34, 45, 75, -4, -103, -167, -6, -79, -143, 6, -127, -85, 67, -70, -205, 22, -89, -119, 7, -142, 
	-92, -96, -153, -9, 8, -164, -147, 48, -59, -100, -82, -67, -84, 3, -20, 16, -12, 2, 11, -64, 
	-10, -100, -111, -6, 37, -99, -24, 50, -59, 63, -24, 12, 72, -17, 66, 0, 31, 81, 77, 104, 
	40, 55, 5, 21, -10, 55, -50, -58, 84, -19, 7, 47, 4, 29, -51, 12, -33, -4, -16, 35, 
	38, 104, 40, -27, 41, 59, 14, 49, -23, -2, 67, -56, -32, 47, -11, 1, 34, -26, 0, -28, 
	38, -101, 59, 59, -16, 24, 37, 76, 16, -34, -41, 70, 70, 91, 22, 9, -2, 37, -9, -43, 
	-44, -102, -38, 0, 90, 40, -55, -59, -3, -53, -74, -37, -40, -44, -56, -46, -6, 23, -44, -103, 
	-30, -45, -88, 76, 20, 2, -11, -61, -36, 12, -129, 44, 40, -29, 35, 33, -35, -33, -88, 48, 
	14, 16, -1, 24, -53, 5, -35, -114, 12, -60, -79, 11, -99, -1, -37, -6, 50, 13, -4, 40, 
	-7, 9, -185, -25, -7, -14, -58, -49, -48, -24, 20, -106, 35, 15, 53, -7, -12, 24, 25, -6, 
	1, 9, -20, -40, 62, 35, 73, 39, 61, -54, -28, 26, 48, 51, -16, -57, 36, 59, 121, -93, 
	18, -22, -137, 35, 44, 29, 56, -11, 27, 25, 80, -74, 24, 48, -58, -47, 17, -25, -70, -66, 
	9, -25, -107, -8, -46, 6, 24, -43, -60, 10, 41, -45, 4, 10, -86, 15, -10, -66, -15, -32, 
	-50, 64, 61, 17, -96, -36, -112, 28, 10, 58, 60, -21, 44, 38, -44, 42, -60, -72, -2, -58, 
	61, -83, 35, 30, -10, 55, -65, -17, -155, 10, 36, 56, -26, 26, 52, 55, 25, -24, 16, 97, 
	54, 48, 30, -26, -57, -34, 37, 66, -35, -32, -49, -38, -32, -31, 7, -41, -5, -79, 86, 65, 
	-70, -77, 44, -43, 46, -36, -46, -53, -7, -11, 57, 77, -76, 2, -113, -25, -81, -74, -6, 12, 
	70, -7, -14, -59, 28, 0, 44, 98, -47, -70, -48, 59, -75, 97, -136, 6, 33, 24, 9, 76, 
	-45, 25, 98, 21, -120, -8, 3, -68, -18, -35, 50, -30, 54, -8, 131, 4, 68, -7, 21, -18, 
	4, -42, 65, -88, -56, 45, -9, 30, 62, -64, -48, 77, 7, 73, -42, -24, -90, 43, 17, 30, 
	9, -135, 128, -84, 72, 38, 46, 51, -21, 41, 0, -12, -125, 0, -108, 74, 69, -11, -69, 50, 
	26, -47, 103, 50, -43, -21, 48, 46, -41, -70, 72, -7, 65, -78, 28, 18, -71, -17, -19, 12, 
	36, 135, -57, 1, -66, 40, -17, 53, 45, 84, 17, -38, 89, -71, -18, 89, 41, 106, -115, -27, 
	-59, -23, 18, 21, -2, 109, -97, -51, 72, -14, -76, 15, 105, 1, 128, 39, -51, -56, -36, 21, 
	84, -25, 39, 46, 52, -62, 33, 63, -54, -89, -37, 8, -95, 31, 41, -53, 19, -148, 60, 8, 
	-23, -5, -41, 51, -75, -35, 50, 51, 16, 61, 16, -18, 6, -99, 53, 76, 51, -87, 28, 14, 
	-20, 92, 95, 14, -157, 55, 4, -84, -41, 117, -56, 3, 131, -79, 21, -40, 14, 99, -87, 55, 
	-29, -40, -13, 84, 16, -79, 115, -107, -9, 73, 84, 47, -114, -47, -51, -12, 35, -23, 31, -95, 
	-28, 3, 91, -12, 61, 96, 43, -156, -14, -50, 78, 50, 73, -82, 134, 2, -61, -14, -82, -72, 
	-76, 75, -7, 53, 15, 119, 4, 20, -17, -14, 68, 46, 10, -86, 114, -76, 60, 19, -70, 12, 
	-11, -75, -113, 62, -123, 64, -150, -51, 28, -5, 40, 25, 110, 79, -121, -30, -32, -72, -11, 57, 
	-98, 69, 91, -25, 60, 27, -3, -27, 78, -80, -76, -131, -24, 86, 46, 49, -11, 83, -58, 48, 
	44, 41, 87, 58, -46, -50, -98, -48, 18, 94, -86, 52, 52, -27, -72, 53, 23, -88, -126, 80, 
	23, -117, 18, -77, -76, -1, 107, 36, 32, 70, -126, 52, 28, 66, -55, 42, -60, 35, 46, -93, 
	-71, 100, 52, -19, 19, 54, 53, 17, -133, -78, 61, -56, -17, 47, -117, -88, 58, 6, 34, 25, 
	78, -98, -126, -89, 62, -14, 24, -7, 94, 13, 54, -92, -7, -9, 47, -16, 50, 89, -61, 60, 
	-85, -77, -17, 37, -13, 32, 134, -51, -72, -20, -79, -32, 75, -10, 87, 42, -89, 80, -86, -57, 
	67, 23, -25, 0, -95, 83, 43, 42, 69, -87, 113, 11, -58, 43, -117, 56, -46, -30, -50, -92, 
	1, 69, -5, 45, -49, 53, -17, -4, -4, -57, 7, 6, -91, 86, -54, 43, 14, -84, 101, 34, 
	31, -35, 12, -100, 28, -54, 80, 76, -19, -37, -5, -41, -42, 108, -8, -21, -77, 99, -2, -15, 
	-62, 49, 71, -39, 85, 31, 22, -34, -48, 137, -33, 84, -47, -38, -28, -57, -27, 51, -78, -14, 
	45, -18, 2, -109, 40, -91, -64, 15, -57, 133, 1, 9, 0, 32, 36, -11, 21, -35, -47, 59, 
	7, 40, 44, -50, 75, -16, 62, 15, -1, -19, -17, -13, 14, 25, 32, -6, 5, 0, 7, 32, 
	33, -2, 18, -16, -1, 52, 17, 72, -12, 48, 57, 55, -22, 24, 23, 6, 27, 38, 21, 9, 
	45, 37, -16, 28, -57, 37, 43, -20, 52, 34, 35, -72, -8, 22, -81, -24, 16, -44, -47, -78, 
	7, -17, 32, -27, -34, -21, -41, -35, -72, -38, -37, -23, 1, -39, -2, -34, 12, 49, -48, 38, 
	9, -24, 58, -47, -58, -33, -23, -16, -6, -15, -34, -4, 37, -29, 15, -9, 14, 24, 25, -9, 
	-9, -39, -14, 12, 8, 52, 54, -32, 54, -63, -27, -63, 5, -22, -48, -25, -10, -36, 102, 27, 
	-8, 60, -21, 13, -8, 1, 39, -31, 84, -48, 18, 30, -25, 28, 49, 32, -20, 60, 18, -58, 
	19, -43, -11, -30, 76, 95, 27, 0, 53, 22, -42, 26, 65, 27, -2, 56, -8, 34, -19, 43, 
	73, -27, -8, -6, 28, 39, 25, 48, -42, 77, -5, -46, -31, 70, 72, 2, 36, 54, -31, 81, 
	-39, 68, -16, 32, 54, -34, -63, -4, 13, -5, 14, -56, -50, -21, 21, 17, -18, -40, 42, -12, 
	-22, -35, -13, 29, -79, -12, -27, -14, 63, -13, -21, -52, 62, 64, 53, -57, -51, -14, 48, 23, 
	-23, 42, -4, 46, 7, 43, -53, 36, -33, -37, -4, 37, 27, -39, -39, -3, -46, -20, -56, 37, 
	-28, -82, -42, -1, 21, 72, 14, -7, -3, 9, -23, -2, -7, 60, 71, 61, 39, 26, 19, 49, 
	16, -38, 55, 18, -12, 50, 26, 6, 38, -10, 89, -26, 2, 62, -49, 27, -58, 55, -30, 8, 
	82, -38, -4, -14, 53, -61, -33, 26, 144, -5, -43, -29, -23, 13, -67, -37, -19, 66, -5, 0, 
	50, -18, -48, 43, 28, -42, -13, 72, 28, -46, 65, 15, 56, -43, 25, -73, 54, 7, 12, -55, 
	-63, 90, -28, 15, 10, -17, -51, -39, -13, -42, -34, 10, -53, 10, 25, 2, -13, 10, -70, 43, 
	48, -27, 2, -24, -29, -15, -18, 37, 3, 52, -38, -30, -82, 12, -71, 0, 36, -15, -57, 24, 
	-17, 86, 44, 67, 32, 49, 2, -57, 23, 4, 78, -9, 15, 35, -37, 22, 1, -48, -9, 27, 
	38, -20, -52, 47, -63, -37, 51, -3, -17, 30, 23, -6, -50, -38, -36, 15, -1, -16, 4, 14, 
	15, 52, 51, 25, 5, 49, 22, 28, -55, -29, 8, 15, 54, 3, 7, -27, -4, 17, 27, -18, 
	37, -25, 22, -39, -26, -26, 2, 25, 9, 15, 21, -22, 28, 34, -83, 4, -29, 12, 8, 8, 
	-8, -29, 24, 20, 4, -64, 36, 97, 40, 80, 52, 33, 41, 80, -14, 68, 70, 36, -53, -17, 
	0, -16, 14, 84, 34, 113, -13, 39, 20, -46, -25, 40, -17, 40, -71, 32, 0, 69, 3, 28, 
	96, -20, 18, 53, 32, -76, -59, -4, 4, 30, -12, -7, 19, 75, 38, -40, 3, 126, 12, 80, 
	-9, -4, 25, 6, 47, -5, 81, 44, -4, -71, -139, 97, 3, 82, 9, -2, 54, 1, -55, 53, 
	-53, 40, -48, 11, -79, 22, -21, 13, -45, -9, -44, 2, -35, -28, -24, 68, 29, 50, 0, -11, 
	-106, 12, 19, -16, 68, -9, 14, -4, 84, -14, -51, -105, 43, -35, -18, 0, -38, 11, 32, -39, 
	37, 31, 72, 45, -30, 21, 19, -53, -16, -30, 25, 12, 24, -36, 82, -35, 6, -36, -86, -22, 
	-11, 39, -76, -16, -34, -1, 11, -73, 46, 25, -55, -23, -17, 60, 19, 56, 54, -17, 27, -48, 
	16, 2, 22, 11, -12, 51, -35, -14, -83, 40, -43, 77, 63, -58, 19, 17, -20, 56, -60, 27, 
	-13, 12, 92, -87, -10, 48, 75, 28, 0, 74, 13, 60, 28, 25, -58, 20, 43, -1, 17, -77, 
	-41, -36, -21, 29, -24, -57, -83, -56, -67, 29, -21, 14, 13, 46, -15, 3, 45, -34, -20, 40, 
	-2, -17, 23, 4, 30, -26, -49, 9, -18, -43, 1, -42, -60, 20, -19, 35, -58, 28, -36, 32, 
	-18, -54, -72, 60, -23, -32, 29, -1, 42, -9, -16, 12, 28, -7, 34, -19, 15, -10, -17, -127, 
	18, 1, -60, -24, -84, -8, 12, -17, -2, -2, -58, -25, -3, 13, -9, -21, -16, 16, 19, 22, 
	-11, -6, -45, 14, 80, -5, -15, -63, -60, 21, 14, 18, -88, 58, -49, -8, -22, 6, 25, 18, 
	71, -43, 53, 71, 30, -15, -49, -44, -30, 20, 65, -12, -35, 26, 21, -9, 12, 13, 49, 51, 
	4, -29, 6, -12, 40, -61, 31, 34, 18, -101, -9, -48, -24, 16, 12, -21, 11, -18, -28, 16, 
	14, 28, 11, 19, 69, 25, -43, -67, 53, 58, -49, -49, -55, 1, 26, 73, -16, 56, -21, 19, 
	-36, 38, -16, 61, -36, 69, 49, 40, 37, -58, 0, 70, -62, 71, 33, 5, 53, 31, -20, -39, 
	5, -32, -8, 12, 1, -42, -19, -31, -22, -31, -51, -15, -59, -64, 0, -9, 39, -37, -7, -9, 
	-28, -43, -56, 22, -14, 41, -23, -7, -21, -33, 28, -27, 8, -33, 15, -28, -61, -15, -20, -27, 
	18, 5, -28, 27, -43, -29, -58, -17, 42, -46, 5, 8, -34, 0, -34, 24, 14, -1, -3, -24, 
	-4, -53, 5, -130, 1, -18, 51, 55, 0, 26, 30, 29, -1, 7, 36, -8, -14, 16, 20, 12, 
	-18, 33, 38, -6, 6, 38, 58, 32, 40, 1, 12, 36, 19, 4, -27, -18, 69, 55, 9, 37, 
	-32, -28, 0, 51, -34, 18, 0, 23, 35, -13, 62, -14, 29, 43, 27, 25, 29, 6, -16, -61, 
	22, 73, 51, 76, 33, 25, 33, 3, 27, 53, -23, -25, -27, -58, -41, -4, -9, 63, 23, -54, 
	14, -6, 14, 2, -70, -12, -71, -21, 32, -47, -47, -41, -40, -34, -25, -21, -25, 5, 20, 0, 
	-75, -37, 5, -30, 10, -4, 25, 7, 38, -28, 17, -17, 60, -8, -26, -11, -46, -14, -53, -8, 
	-45, 25, -3, 14, 1, -26, -83, -44, -30, -58, -7, 58, -9, -7, -32, 8, 34, -18, 53, -25, 
	28, -39, 71, 53, -35, -7, -55, 4, -19, 5, 5, 5, 48, -68, -5, -36, -7, 44, -28, 0, 
	-26, 21, 2, 48, -33, 15, 13, 56, 10, 31, 4, 0, -36, 8, 0, 6, 0, 11, 45, -10, 
	34, -42, -4, 0, 47, 34, -14, 74, 19, 28, -6, 9, 22, -24, 22, 35, -32, 24, -22, 0, 
	24, -37, -2, -51, -33, -9, -71, 55, 0, 54, 27, -51, 8, -1, -17, 62, -41, 9, 66, -79, 
	0, 17, -17, -13, -36, 26, 16, -46, -7, -18, -50, 58, 3, 25, 9, 49, -22, 23, 18, 47, 
	-33, -4, 53, -56, -16, 89, 0, 0, 25, -80, -37, 52, -48, 49, 61, -56, 3, -6, 0, -50, 
	42, -54, -109, 12, 32, 50, -51, 6, 28, -9, 88, -4, -78, 23, -24, 2, -4, 20, -3, 28, 
	-30, -35, -12, -9, 25, 0, 5, 36, -25, 32, -64, -37, -70, -4, -13, 55, -27, 12, -43, -34, 
	-26, 59, 40, 12, -66, 3, -9, -13, -71, -37, 45, -60, 8, 1, -6, -6, 47, 57, 7, -76, 
	55, -75, 4, 60, 5, -62, -50, 30, -57, -32, 19, 9, -28, 25, -47, 54, 18, 67, 44, 11, 
	42, -27, 1, 26, -3, 28, 30, 15, -12, 19, 15, 12, -48, 0, -29, -51, -8, -36, 40, -12, 
	-25, 18, -18, -5, -35, 35, 36, 12, -53, -22, -20, 13, 21, 58, -24, -44, 19, -6, 1, 26, 
	-7, -19, 33, 6, 10, 40, -38, -16, -15, -88, 12, -7, -38, 28, -11, 67, 2, 50, -51, -25, 
	5, -8, 42, 17, 3, -49, -34, -6, -73, 34, 29, 31, 9, 9, -25, -35, -44, -68, -71, 1, 
	12, -19, 26, -15, 26, 33, 1, -8, 13, -8, 34, 9, -28, 45, 10, -47, -15, 16, -49, -17, 
	22, -25, -42, -45, -2, 25, -3, 27, -36, 37, 41, -78, -44, -11, 45, -27, 46, -18, -15, 40, 
	13, 9, 32, -27, -2, 1, -33, 32, 34, -59, -63, -3, 7, 8, -1, -28, -15, 0, 49, -84, 
	3, -48, -30, 58, 20, -54, 42, -3, 17, -18, -17, -15, -15, -55, -1, -31, -52, -34, -44, 4, 
	54, -13, -39, -51, 0, -27, 33, 6, -36, -38, -67, -19, 43, -60, 46, -48, -18, 11, -19, -79, 
	16, -62, -30, 4, -36, -17, 19, 47, 6, 5, 22, -5, -65, -13, 20, 5, 10, -25, -2, 51, 
	13, 66, -87, -7, 80, 28, 53, -9, 45, -15, -2, 55, -3, 29, 45, -31, 10, 14, -28, 24, 
	-18, -28, -13, -8, 46, 5, 44, 17, -27, 11, 2, -27, 14, -50, 13, -38, -60, -64, -5, 23, 
	-36, -84, 33, -60, 7, -84, 11, -71, 25, -61, 45, 9, -23, 14, -10, 8, -92, 24, -46, 23, 
	0, -57, 6, 18, -4, -9, -46, -38, 22, 43, 10, 70, 24, 5, 26, -44, -50, 51, -36, -21, 
	35, -34, 2, -34, -62, 37, -32, 28, 20, -24, -20, -26, -11, 78, -18, -74, 61, -35, 51, -108, 
	-73, 56, 17, 42, 4, -34, 54, -1, 26, 17, -31, 11, -11, 58, -22, -5, -20, 23, -52, 46, 
	14, -44, -63, -39, 11, 52, -44, 6, -13, -43, 3, 3, 14, 54, 7, 15, -28, -30, -38, -59, 
	20, -3, -38, 20, 17, -13, -37, -12, 62, 0, -23, -49, 0, -32, -26, -34, 18, 23, 30, -23, 
	-31, 36, 19, 2, -28, -39, 6, -34, -5, 30, 20, -19, -47, -5, 4, -35, -29, 33, -22, 34, 
	-10, 15, 55, -21, -9, 21, 6, -16, 9, -13, 64, -27, -46, 21, 30, -19, -41, 49, 0, 3, 
	7, -18, -34, 23, 82, -4, -2, 0, 80, 10, -10, -1, 0, 27, 24, 31, 16, -8, 32, -47, 
	29, 33, -25, -15, 46, -27, -48, 1, 45, 47, -10, 43, -5, 36, -39, 92, 19, -7, -70, 26, 
	-38, -41, 7, -70, -76, -3, -49, 29, -23, 1, -100, -48, -20, -26, 28, -25, -49, -11, 33, 44, 
	37, 11, -60, -90, 42, 60, -4, -4, -33, -17, 46, 34, -6, 37, 32, 39, -35, -12, -30, 44, 
	-86, 20, 2, -24, 13, -11, -78, 28, 20, 18, -75, -14, 11, -9, -11, 94, 10, -44, 51, 29, 
	13, 0, 30, -70, 76, -32, 31, -90, 8, -101, -48, 9, -44, 15, 68, -59, 23, 34, 24, -65, 
	36, -36, -27, -51, 99, 2, -24, 42, -40, -9, -22, -43, 52, -34, 21, -23, 69, -13, 40, -10, 
	8, 24, -69, 44, -26, -8, 52, 33, -69, 69, -36, 76, 37, -13, -39, 24, 30, -81, 20, -23, 
	45, -36, 24, -49, -3, -42, -24, -81, 10, 71, 8, -11, 59, 6, 8, -11, -35, -31, 31, -26, 
	-22, -24, 0, 17, -18, -12, 28, -11, -3, -48, 81, 0, -25, -16, 4, 17, 85, 36, 39, -36, 
	0, -37, -9, -56, 29, -45, 21, 12, 35, -54, -25, -51, -43, 79, 55, 12, 16, -75, -25, 10, 
	-82, -10, -10, -61, -11, -73, -22, -8, -38, -23, -50, -65, -5, -13, -15, -23, -7, -43, 26, -53, 
	-77, -18, 51, 44, 55, 11, -6, -33, 19, 23, -37, 11, 48, -5, 37, -5, -49, -64, -3, 7, 
	38, -52, 26, -15, 17, -32, -15, -41, 12, -2, 33, 45, -34, 39, 1, 44, -34, -3, 42, -4, 
	-19, -24, -78, -22, -61, -92, 19, -51, -23, -50, 62, 6, -30, -12, -2, -19, 33, 55, 61, -22, 
	-36, 29, -11, 15, -12, -13, -52, -7, -53, -58, -3, 3, -37, -29, 10, -3, 59, 21, 5, 21, 
	23, 12, 41, 48, -58, -36, -47, -57, 23, -2, -15, 18, -76, 36, -24, 87, 68, 1, 1, 48, 
	-20, 77, 12, 2, 27, 49, -33, -89, 14, 27, 38, 31, -32, 33, -16, 10, -4, -1, 32, 8, 
	34, 31, 59, -37, 5, -42, -53, -35, -38, 7, -9, 13, 24, -23, -5, 12, -39, 23, -6, 20, 
	109, 58, -1, -39, -31, -17, -24, 20, -92, 3, -6, 37, 36, 4, -42, 52, -41, -23, 15, 2, 
	-37, -28, -36, 22, 32, 3, 46, 0, 9, -7, 27, -33, -38, -14, 30, 56, 22, 2, 24, 13, 
	-7, -9, -39, 40, -18, -4, -55, 72, 18, 36, 0, 34, 78, 54, 2, 45, -11, 27, -21, 5, 
	6, -51, 46, -18, -137, -6, 23, 42, -6, -40, -39, -27, 37, 42, 7, -28, 13, -21, -7, 8, 
	-39, 22, 56, -5, 20, -17, 0, 17, -23, 1, -48, -54, 0, 30, 60, 42, 42, 35, 45, -49, 
	-6, 46, 45, 15, 15, 33, -59, 11, -12, 70, 21, -26, 4, -10, -34, 0, 37, -45, -29, 25, 
	-44, -14, -18, 0, 63, 15, 1, -58, -67, 19, 15, -42, 26, -4, -26, 19, 33, 47, -38, -25, 
	90, -38, 21, -33, 74, -49, 12, -28, -32, 17, 27, -27, 29, -38, -2, -31, 2, 11, -6, -8, 
	38, -19, -59, -47, -37, -15, -96, -22, -49, -16, -1, -37, 24, 10, -29, 10, -76, 18, 22, -32, 
	18, 73, 11, 23, 50, 52, 27, 0, 38, -43, -48, 7, 28, 45, -1, -48, -16, -48, 16, 55, 
	-40, 41, 40, 42, 11, 43, 25, 36, -59, -14, 36, -43, -57, 44, 78, -32, -43, -74, -66, -29, 
	-32, -13, -19, -81, -30, 47, -67, -60, -14, 8, -9, 0, 44, 33, 43, -58, -34, -20, -71, 5, 
	-28, 5, 0, -91, -32, -12, 44, 6, 36, 19, 13, -88, -5, -4, -8, -58, 71, 89, -30, -4, 
	45, -56, -24, 35, 32, 3, 81, 51, -20, 21, 31, 96, 20, -6, 10, -12, -29, 62, 55, -27, 
	15, 53, 17, 56, -20, 6, -10, 34, -13, -18, -11, 40, 38, -54, 146, -5, -31, -11, 34, -82, 
	-16, 36, -56, 24, 84, 20, -6, -48, 3, -17, -47, -46, -106, 29, 34, 0, -5, -5, 11, 23, 
	-63, -7, -1, 111, 60, -27, 7, -63, 40, 52, 17, 7, -43, 53, -23, -4, 85, 25, -21, 9, 
	79, -36, 15, 84, 69, 65, -4, -69, 52, 23, 60, 0, 42, 64, 41, -42, 9, 57, -12, 38, 
	34, -39, -35, 40, -25, -80, 1, -19, -1, 56, 30, -37, 32, 27, -1, 43, -63, -10, -21, -7, 
	-32, 22, 0, 41, -2, -29, 29, 0, -23, 4, -38, -3, 5, 49, 10, 32, -62, -19, 7, 4, 
	10, 12, 0, -2, 12, -6, -11, -10, 51, -92, -6, 59, -35, 17, 30, -16, -19, 41, -26, 3, 
	13, -16, -26, 75, 17, 84, 13, -56, 16, -32, 1, -15, -43, 12, 14, -23, -34, 26, 51, 17, 
	-10, 32, -19, -20, -7, 28, -15, 13, -32, 34, -75, -85, 26, 64, -22, 29, -75, -1, 44, 12, 
	20, 33, -17, 91, 30, -15, -9, -32, -78, 42, 53, 62, -29, -75, -63, -27, 9, 52, 0, 23, 
	59, -4, -17, 32, -21, 54, 3, 36, -55, -18, -62, 24, 8, 59, -36, 53, 7, -35, -31, 2, 
	57, 11, -41, 30, -32, 40, -36, -1, 33, 39, 39, 38, -14, -83, 15, 27, 15, 47, -35, 7, 
	35, 30, -32, 36, -12, -14, -7, -7, -108, -10, -14, 7, 14, 9, 21, 0, -4, -39, -9, 26, 
	-53, 51, 51, 29, 1, 14, 4, -6, -7, -60, -11, -20, -58, 62, 10, 4, -44, 44, -67, 11, 
	31, -20, 79, 38, -3, 73, 79, 49, 3, 5, 47, 42, 0, -41, -35, 44, -24, 94, 25, -69, 
	20, -68, -27, 42, 16, 47, -11, 3, -24, 20, -6, 18, 77, -55, 6, -10, -63, 21, 61, 3, 
	-35, -7, -85, -78, 11, 18, 35, -33, -9, -32, -89, -50, 18, 24, -28, -22, 16, -29, 6, -23, 
	-13, 17, -1, -13, 56, -14, 21, -21, -28, 31, 79, 18, -33, 46, -19, -15, -11, 54, 18, 30, 
	57, 51, 24, -4, 9, 83, 20, -1, 73, 23, 39, 44, 52, 14, -6, -8, 23, 9, 14, 79, 
	11, 16, 18, 6, -41, 80, 39, 28, -13, 50, -51, 38, 9, 6, -27, 36, 6, -19, 24, 40, 
	-2, -23, -6, 30, 47, -24, 92, -25, -15, 16, -79, 58, 25, -27, -54, -56, -1, -11, -75, 67, 
	60, -6, -2, 52, -4, -49, -54, 3, 24, 31, -25, -23, -42, -39, -54, 52, -2, -9, 25, -7, 
	18, 4, -57, 55, 40, -50, -32, 23, 54, 16, -35, 6, 27, 18, 0, 19, -32, 17, 40, 85, 
	9, -60, 37, -18, 30, 11, -7, 7, 30, 13, 87, -12, -55, -33, -30, -8, -54, -3, 44, -31, 
	51, 6, -11, 44, 32, -37, -2, 9, 104, 14, -24, 38, -59, 53, 5, 25, -23, -5, 28, 3, 
	45, 23, 19, 14, 9, -20, -33, -20, -8, 0, 33, -19, 6, 81, -67, 20, -11, -46, -47, -29, 
	-11, -67, 34, 28, 11, -96, 59, 40, -5, 58, 25, 39, -2, -3, -59, 35, 29, 67, 57, -14, 
	33, 53, -47, 15, -11, 75, -4, 25, 68, -15, 5, 60, -62, -55, 21, 5, 70, 25, 23, 2, 
	59, 35, -3, 46, -71, -43, 12, -31, 20, -12, -12, -3, 29, -22, -22, 41, -17, 26, 26, -46, 
	-10, -5, 88, 25, 31, 72, 51, -33, -33, 87, -7, -31, 56, -26, -32, -15, 23, -6, 36, -4, 
	-20, 15, -46, 17, -20, -16, -11, -2, 10, -38, 17, 38, -9, 14, -13, -16, -30, -2, 4, 23, 
	28, -34, -64, -3, -22, -39, -38, 25, 20, 50, -9, -2, 18, 0, -38, -7, 7, 22, 0, 1, 
	25, 35, -7, -41, -7, -19, -23, -21, -38, -64, -7, 5, 29, 92, 55, -36, 98, 13, -16, 0, 
	38, -67, 11, 5, 6, -55, 14, 6, 21, 24, 17, -58, -27, 4, -14, 11, -5, 15, 14, -50, 
	42, 31, 50, -14, 65, 37, 15, -38, -49, 8, 7, 30, -60, 65, -19, 71, 90, -4, 20, 24, 
	93, 78, 10, 69, 13, 102, 7, 63, -3, 10, 85, -18, 18, -14, 76, -20, 27, 37, -45, -13, 
	7, -28, -23, -13, -28, 8, 16, 41, 45, 16, -14, -18, 33, -39, 17, -49, 22, -13, -6, -23, 
	38, 9, -9, 29, 56, -21, 34, 42, 24, -6, -49, 32, -32, 24, 38, 59, 5, -35, -21, 44, 
	-2, 24, -2, 51, -15, 68, 16, 26, 24, -24, -67, 6, -11, 36, 26, 0, -4, -8, -2, -42, 
	-46, -37, -43, 61, 69, 70, -36, -15, 59, -101, 75, -40, 14, -60, 29, -59, 5, -27, -21, -134, 
	-12, -10, -1, -39, 52, 11, 37, -20, 49, 45, -41, -146, 92, 97, -50, -57, -48, 47, 44, 29, 
	-78, 46, 30, 50, 51, 31, -34, 70, -38, 35, 18, 96, 49, -12, 25, -19, -84, 36, 70, 77, 
	22, 58, -38, 20, 29, 88, 25, -44, -13, 0, 0, -75, 42, 6, -21, 24, -18, -45, -3, -14, 
	4, -7, -9, -2, -1, 0, 19, 5, 18, -38, 22, -15, -9, 41, 13, -12, 31, 18, 29, -40, 
	-29, 55, 38, -23, 25, -21, -14, 55, -14, -70, -42, -3, 33, -13, 49, 6, 20, 66, -3, 23, 
	-9, 8, -5, 22, 19, -64, 34, -97, -11, 74, -6, -10, -50, 35, -79, -45, -47, -33, -13, -31, 
	-81, -17, -70, -3, -44, -3, -20, 27, -18, -58, -6, 52, -93, 20, 3, 75, -17, 26, 10, 46, 
	9, 5, -17, -9, -46, 4, 10, -33, -2, 54, 22, 52, -42, -7, 19, 0, -24, -52, 8, -21, 
	-12, -46, -22, -29, 46, 33, -109, -4, 23, -16, -64, 77, 19, -50, 34, 17, -5, 7, 86, 26, 
	-6, -28, 7, 55, -3, 34, 71, -6, 17, 31, 62, 17, -23, 56, 47, 28, 15, -17, 52, 1, 
	-8, 62, 29, -9, 0, 21, 16, 68, 12, 49, -1, 58, 11, 15, 52, 73, -17, 49, 52, 19, 
	40, 39, 47, -43, -4, 37, 13, -36, 52, 9, -1, 65, 0, 12, -13, -18, -6, -24, 14, 18, 
	51, -28, -35, 14, 14, -42, 40, 31, 53, 12, -37, 26, 49, -23, -91, -36, 21, 20, 9, 12, 
	31, -9, -31, -37, -18, 38, 36, -4, 56, -23, -30, -68, -2, 26, -21, 23, -38, 4, -29, -13, 
	4, 32, 4, 24, 77, -17, -51, 41, 60, 37, -44, -50, 22, -16, 43, -46, -45, -23, 43, 15, 
	-3, 15, -47, -1, 45, -19, -41, 7, -14, -102, -44, -29, 74, -15, 70, -64, 29, -97, -66, -7, 
	-31, -9, 13, 27, 10, -2, 18, -78, 14, -6, 91, -2, 24, 18, 9, -22, 44, 38, 60, 50, 
	-31, -48, -54, 35, 150, -46, -27, -83, 26, 85, -5, -42, 88, -25, -73, 25, -22, 41, 59, -9, 
	32, -60, 23, -24, 8, 63, 85, -42, -38, -71, -105, -30, 27, 61, -22, -73, 107, 65, -35, 28, 
	7, -61, -23, -64, -91, 24, -21, -74, 0, -49, 35, -64, -26, -41, -8, 20, 48, 6, -44, -71, 
	83, -58, -34, -43, 70, 0, -27, -31, -13, 1, -69, 22, -3, 4, 47, 38, 4, -39, -40, 3, 
	-12, -8, 16, 31, 6, -79, 65, -56, 6, 65, 27, -21, -32, 70, 25, -69, -4, 33, 69, -11, 
	5, -54, 16, -60, -9, -35, 65, -14, 27, 48, 22, -78, 4, -9, 16, -6, 45, 41, -56, -90, 
	31, 94, -29, -33, 8, -40, -7, -24, 94, 6, 3, 67, 6, -39, 14, 16, -53, 25, 23, 59, 
	-38, 108, 32, 10, -40, 33, -80, -25, 26, 4, 36, 85, 38, -11, 68, -13, -27, -24, -84, -85, 
	57, 10, 31, -24, 83, -35, -33, -87, -1, -43, 7, -42, -9, 3, -10, -8, 53, -50, -7, -22, 
	35, -11, 13, -33, 21, 42, -35, -65, 54, 36, 17, 8, 17, 24, -31, -27, -19, 30, -50, -34, 
	11, 10, 43, 16, -7, -24, -60, 9, -82, -30, 68, 5, 34, 51, -21, -87, 33, 60, -11, -16, 
	20, 3, 17, -30, -21, -17, -22, -60, -61, -4, 4, -3, 68, 11, -16, -32, 7, -8, 30, 37, 
	-7, 2, 38, -18, -91, -36, -17, 10, 34, -73, 12, 36, -62, 61, -21, -29, -39, -7, 30, 17, 
	-45, 6, -1, -46, -53, 7, 5, 39, 20, -8, 20, 23, 24, -11, -35, 57, -3, -9, -52, -101, 
	-29, 69, -62, -16, -17, 46, 51, 1, 0, 5, -56, 16, -72, 92, 28, -31, 45, 38, -24, 55, 
	35, -21, 15, 21, 16, -8, -62, 49, -162, 7, -77, -15, 13, -69, 25, -36, -29, 63, -43, 0, 
	-6, 30, 32, -20, -35, -52, -19, -53, 27, -11, -35, -25, 2, -98, 25, -28, 24, 38, 73, 9, 
	-27, 24, -46, -25, 43, 24, 51, 5, 25, 63, -16, 7, 29, 58, 75, -27, 21, -21, -23, -22, 
	29, -48, 42, -58, -5, 35, 25, -13, -29, -47, 74, -70, 41, 36, -78, 52, 11, 28, -71, 2, 
	-17, 21, 20, -14, 49, -2, -41, -22, 33, 20, -81, -38, -48, 53, -10, 14, -14, 45, 18, 29, 
	31, -55, -84, 37, 25, 25, 35, -1, 35, -24, 120, -16, -78, -36, -5, -13, -29, 64, 57, 92, 
	25, 43, 32, 20, 19, 37, 93, 34, -7, -12, 25, -47, 0, -22, 32, 23, 64, 16, -7, 51, 
	-33, 29, 0, 56, 107, -42, -78, -97, 91, -68, -25, -34, -7, 4, -22, 38, 2, -27, -88, -20, 
	-13, 105, 28, 7, 82, -79, -29, -13, -4, -1, 0, 65, -52, -13, -56, 4, 14, 12, 51, -34, 
	20, 13, -63, -33, -85, 28, -24, -1, 40, -4, 14, -3, 28, -8, -23, 33, -25, 56, 10, 20, 
	-62, -55, -10, 29, -54, -20, -76, -2, -5, -3, 32, -3, 8, 18, 5, 5, 29, 70, 40, -53, 
	22, -23, -9, 2, 69, -74, -63, 70, 5, -39, -9, 20, -9, -59, -30, -50, -45, -21, 14, -8, 
	-26, 65, 42, -39, -36, -66, 90, 6, -49, 104, -38, -11, -80, 87, 42, 20, 41, 34, 25, -5, 
	0, -33, -40, 66, 70, 115, -126, 34, 52, 32, 68, 9, -92, -2, -25, -50, 22, 44, -35, 42, 
	25, -18, -7, 58, 102, 17, -35, 13, -20, 147, -3, 0, 108, 6, -15, -89, -17, 142, 60, 129, 
	12, -54, 28, 71, -18, 54, 47, 59, -7, 2, -71, 41, 61, -31, 34, 30, 4, -43, 40, 4, 
	-57, 78, 67, -71, 70, 0, 85, 9, -54, 14, -26, 8, 0, 42, -14, 31, 37, 14, 64, -7, 
	-42, 65, 26, 25, 18, -2, 36, 5, -15, 29, 23, -21, -17, -86, -37, 45, -64, 76, -1, 55, 
	62, -53, 6, -65, -32, 6, -30, -95, 80, -48, 18, 30, 20, -9, 29, -17, -35, -24, 32, 3, 
	-93, 32, 69, 10, 22, -70, -30, -7, -27, -54, -9, -57, 104, 24, -26, 28, 5, 42, -40, -14, 
	-3, -68, -13, -33, -2, -10, -65, 71, 52, -61, -6, 8, 12, -7, 35, 18, 9, 75, -35, 63, 
	-13, -9, -73, 7, -34, -1, -18, 10, 45, -47, 5, 67, 59, 33, 61, -46, -25, 6, 72, 9, 
	39, -9, 29, 6, 0, 33, 48, -28, 54, 42, -13, -47, -63, -37, 41, -19, 76, 23, -65, 41, 
	-37, 74, -43, 41, 51, -56, -4, -18, 28, 55, -25, 56, 28, 9, -6, -3, -61, 1, 32, 0, 
	30, 43, 22, 11, 22, 4, -110, 8, 46, 17, 40, 53, 56, -5, -6, -7, 97, 14, 6, -64, 
	-7, -11, 12, -38, -17, -31, 25, 23, -39, -42, -18, -49, -33, -24, 59, -33, 38, -10, -36, 0, 
	-10, -15, 6, -17, -80, 47, -25, -41, -21, -27, 27, -48, 9, 12, -5, 7, 58, -53, -33, -13, 
	-11, 12, -7, -12, -29, 48, -51, 22, -13, -24, -25, -40, -47, -95, -34, -49, -12, -47, -70, 10, 
	-15, 36, 15, -13, -17, -14, 45, -41, 26, -13, -30, -47, -13, 44, 20, -40, -7, -58, -68, 53, 
	36, -42, -45, -28, 9, -29, -11, -37, 55, 29, 55, -30, -57, 28, 32, -26, -59, 50, 0, 17, 
	-13, 5, -45, 42, 13, -30, -20, 46, 27, -30, 26, 0, 32, -35, 20, -21, -15, -16, 57, 55, 
	42, -8, -18, -21, -64, -10, -9, -77, 7, 72, 10, 59, -64, 19, -30, 27, -12, 21, -39, 54, 
	-25, -12, -35, -35, -26, -12, -73, 3, -22, 7, -38, 14, 50, 9, -5, 13, -18, 37, -40, -38, 
	71, 1, -4, 50, -101, -23, -19, 80, 17, -41, -14, 64, 13, 85, -37, 12, 24, 3, -18, -21, 
	20, 70, 10, 7, 23, 24, 6, 59, 20, -5, 106, -44, -49, -3, -8, 14, -32, 36, 38, 8, 
	-25, 42, 3, 94, 57, -5, -22, 34, 11, 37, -48, -18, 40, 38, -61, 8, -28, -7, 37, -7, 
	-82, 27, -15, 62, -43, 24, -26, 56, -18, -43, 67, -10, 73, 9, -21, -13, 30, -44, -2, 65, 
	10, -8, 54, -16, 12, -33, 72, -19, 24, -31, 55, -45, 47, -11, -1, -11, 38, -18, 18, -12, 
	23, 25, 6, 44, -22, 19, -28, -43, 38, -49, -63, -9, -44, 13, 31, -25, 31, -21, 15, 56, 
	12, 32, 17, 46, -19, 21, -37, -25, 6, 0, 29, 44, -86, 24, -36, 34, 71, 18, 4, -6, 
	29, 57, -63, 50, 11, 12, -17, -81, 16, 22, 55, 69, -19, 60, -47, 11, -25, -12, -42, -10, 
	-18, 48, 0, 23, -24, 35, 8, 6, -5, 2, 28, 31, -8, -9, -51, -11, 16, -37, -3, 53, 
	-51, 36, 26, 29, 23, -27, -46, 13, 15, -5, -53, 9, 4, 50, -7, -5, -49, -34, 25, 60, 
	32, -87, 26, 20, -49, 12, -61, -72, 13, 15, -9, 24, 11, 70, 67, -39, 28, 4, 31, 21, 
	-4, -5, -64, 33, 19, 7, 34, -1, 17, 55, 48, -61, 29, 44, 18, 17, -56, 17, 11, 47, 
	15, -27, -11, 60, 0, 36, -5, -45, 19, 79, -10, -14, 62, 5, -22, 42, -18, 67, -3, 55, 
	-37, -1, 33, 62, -28, 73, 69, 13, 9, -45, -4, -67, 20, 14, 81, 86, 52, 11, 31, 56, 
	-54, -20, -35, 30, 24, 25, 3, -1, -31, -37, 4, -24, 50, -23, 15, -32, -23, 25, 21, 3, 
	43, 41, 35, -11, -17, -53, -26, -9, 15, -28, 36, 15, -52, -51, 14, -36, 40, -10, -8, 28, 
	-9, -51, 13, -1, 16, -28, 14, -15, 11, -20, 9, -99, 0, -6, -36, -4, 90, 21, 35, 55, 
	-4, 16, -82, 53, -18, 12, 9, 49, 19, 37, -80, 75, 50, 38, 65, -13, -39, 19, -35, 62, 
	50, -17, -85, -69, -78, 17, -11, -14, 73, 29, -10, 3, -69, -93, -12, 0, 29, 32, 33, -9, 
	-2, -27, 17, 44, -58, 21, -25, -58, -103, 24, -36, 34, 64, -50, 26, 14, 36, 2, -6, -1, 
	12, 27, 51, 11, 4, 34, -25, -90, -14, 2, -85, 1, -41, 3, -65, 11, -39, 20, 39, 3, 
	-100, 6, -45, 0, 3, 38, -33, -14, 26, -12, -28, -43, -21, -12, -63, 21, 14, 14, 17, -33, 
	47, -10, 28, 53, -24, -11, 34, -8, 51, 48, -1, 12, -159, -42, -17, 57, 17, -20, -27, 79, 
	-7, 3, -18, 16, -27, 5, -28, -77, 69, -42, -44, 2, 6, -43, -31, -1, -40, -59, -63, 16, 
	28, 2, -54, -29, 21, 8, -39, -22, -27, 37, 1, 40, -54, -26, -1, -81, 15, -42, -101, 30, 
	-1, 35, 50, -1, -23, -53, -58, 25, 16, -19, 0, 17, 21, 23, 28, -22, -49, 16, 23, 34, 
	42, -7, 1, 2, -2, -24, -37, 8, -54, 11, 71, 15, 5, 8, -14, 58, -16, -84, 6, -65, 
	-18, -33, 18, -45, 11, 17, 40, 56, -57, 56, 13, -34, -8, 41, 5, 43, -2, -80, -53, -6, 
	20, -7, -30, -55, 53, 68, 10, 44, -10, -24, 73, -6, -14, 44, 38, -30, -25, -42, 22, 55, 
	35, -7, 30, -1, 38, -14, 24, -11, -1, 84, -26, 36, 62, -15, -21, -37, -66, -57, 33, 0, 
	13, -24, 44, -22, 25, 53, -17, 5, -44, 40, -69, 34, -15, 21, 6, -39, 38, -17, -1, 62, 
	-4, 42, 33, 0, 50, -30, -8, 38, -26, -13, 45, 19, -29, -11, 21, -49, -5, 20, -18, 29, 
	12, 60, 31, -9, 6, -26, 16, 31, 5, -21, 44, -6, -11, 38, 37, 62, -27, 47, 8, 1, 
	-15, 5, -1, -54, 9, -41, -33, 22, 12, 15, 62, -42, 19, 31, -16, -27, 9, -3, -22, 15, 
	-61, -32, -11, 13, 32, 29, -20, -65, 35, -16, -5, -6, -53, 4, 47, -27, -22, -9, 39, 34, 
	36, 17, 3, 21, -2, 21, -14, -51, 2, 38, 38, -7, 29, -58, 9, -36, -38, 5, 66, 52, 
	29, 2, -3, -13, -11, 11, -60, 19, 19, -71, 62, -32, -22, -71, -34, 33, 43, -2, -3, 27, 
	102, 15, -69, -1, 49, -10, -65, 18, -72, 31, -52, 49, -7, -9, -11, -26, 16, -43, 38, 19, 
	62, -18, 34, 12, 103, -16, 7, -27, -6, 15, -46, 4, -94, -1, -1, 9, 48, 26, 14, -12, 
	51, 10, -14, 38, -14, -53, 92, 69, -58, -33, -38, -73, -60, 21, 21, -12, 10, 43, -36, 41, 
	34, -37, 9, -53, -33, -86, -17, -11, -37, -49, -74, -56, -30, -15, 22, 31, 30, -8, -23, -15, 
	15, 0, 32, -44, 51, -27, -17, 9, 3, -35, 8, -34, 11, -40, -7, -34, 21, -16, -61, -5, 
	2, -46, 18, -13, 14, -19, -33, 51, 6, -18, 10, -8, -32, -87, -7, -16, -43, -2, -44, 5, 
	-18, -25, 21, -1, 18, -22, -67, -3, 49, 42, 48, -44, -28, 60, 104, 21, 36, -7, -1, -1, 
	-51, -11, -33, -42, 38, 71, -4, 28, -53, -34, -30, 69, 27, -24, 26, 24, 38, 23, 62, 89, 
	7, -22, -2, -45, -44, 54, 23, -43, 19, -61, 81, 29, 27, 35, -72, 25, 28, -24, 2, -3, 
	13, -53, 27, 30, -17, 25, -37, -24, 4, 14, -43, 55, -5, 45, 0, 27, 27, -8, -1, 49, 
	-20, 73, 34, -22, 29, 18, 17, 51, -46, 19, -10, -34, 40, -53, 14, -16, 56, -12, 26, 20, 
	25, -8, 27, 40, -61, -9, -26, -9, -66, 41, -29, -16, -30, -66, -19, -16, -49, 0, 0, 4, 
	29, 25, 6, -53, 24, 70, 0, -4, 38, -97, -27, -41, 1, -15, -82, 13, 101, 20, 27, -20, 
	-15, -26, 12, 16, -38, -25, -15, 3, 28, 27, 6, 2, -70, -43, 66, -11, -19, -30, -35, -43, 
	90, -16, 32, 36, -16, -23, -39, -70, 33, 21, -23, -7, 66, -17, 24, 7, 64, 2, -27, -95, 
	-56, -56, 72, 38, -36, -52, 2, -105, 17, 14, 2, 19, 29, -41, -46, -49, -8, 44, -15, -84, 
	-39, -37, 7, -1, 0, 32, -12, -47, 17, -7, -76, 7, -9, -1, -48, -5, -4, -48, -43, 31, 
	73, -25, 0, -25, -18, -51, 11, -22, -51, 23, -11, -48, 0, 25, -31, 66, -20, -61, -55, 11, 
	35, -37, 52, 8, 8, -6, 9, -68, -25, 25, 13, -34, 3, -6, 4, -18, 4, -41, 63, 2, 
	-6, 14, -8, -53, -46, 5, 8, 3, -18, 5, -22, 3, -39, -23, -67, -10, 91, 20, -15, 16, 
	-5, -54, -35, 59, 75, 40, 3, 12, -14, -1, 19, -9, -9, 4, 10, 4, 32, 76, -36, 47, 
	49, -22, -39, 3, 33, 27, 64, 7, -15, 35, -19, -37, 4, 36, 50, 5, 25, 90, 4, -75, 
	-30, -3, -53, 29, -1, 80, 48, 59, 83, 68, 47, 5, -30, 45, 40, 63, 38, -22, -17, -34, 
	-24, 29, -21, 17, 69, -1, -38, -36, -3, 78, 22, 30, 77, -17, -66, -59, 55, -45, 31, 9, 
	-32, -54, -12, -32, 0, 7, 14, -1, 0, 77, -33, -54, 41, -47, 15, -54, -70, -31, 7, 8, 
	-24, -110, 33, 13, 19, -5, -94, -39, 21, 26, 72, -5, -65, -33, -57, 28, 6, -54, -70, -48, 
	-33, -28, 6, -22, -91, -3, 21, 9, -3, 3, -82, 14, 30, 87, 1, 1, -70, 45, -37, -13, 
	17, -11, -18, 36, -37, 50, -47, -24, -24, 53, -45, 0, -44, -26, -30, 30, 45, 9, 4, -6, 
	37, -4, 4, 34, -37, 23, 51, -5, -7, 59, 39, 32, 2, 31, -13, -20, 51, -89, 24, 39, 
	-29, -28, -3, -10, -54, 65, 68, -34, -14, 10, 47, 14, 101, -3, 8, -21, 30, 35, -77, 36, 
	14, 6, 66, 0, -11, 23, 64, 18, 16, -11, -9, -9, -15, 49, 35, 39, -33, 7, 22, -9, 
	5, 67, -24, 56, 15, -36, -9, 12, -1, 7, -12, 21, -61, 6, -12, 0, 36, 21, -71, 41, 
	-39, 66, 27, -28, -21, 20, 30, -9, 19, -6, -65, -6, 15, 23, -75, -14, -33, -35, 13, -34, 
	41, -80, 21, 14, 21, 36, -34, -3, 67, 41, 4, 2, -27, -1, -37, -11, -13, -55, -10, 54, 
	39, 19, -27, 0, 19, 44, -33, -48, -28, 18, 29, -24, 2, -46, -20, 43, -34, 28, -12, -45, 
	-7, 31, 56, 35, 33, -35, 20, 5, 45, 15, 55, -22, 7, 14, 19, -11, -16, 4, 37, 52, 
	66, -4, 31, 1, -16, 13, -39, 46, 63, -20, 20, 8, 49, 79, 44, -13, -36, 4, -9, -15, 
	-50, 22, 27, -56, -41, 2, 2, -7, -4, 23, -11, 59, -22, 4, -24, 12, -28, -47, 19, -44, 
	-10, -25, -43, -27, 35, -9, 76, -39, -49, -7, -2, 62, -69, 10, -7, 28, -11, -38, 27, -15, 
	-26, -42, 29, -34, 30, 5, -1, 4, -30, 26, 26, 17, -15, -52, 0, -79, 34, -33, 22, 38, 
	32, 17, -14, 28, 31, 26, 11, -28, 4, 87, 40, 52, 88, -37, -49, -13, 23, -42, -17, 54, 
	34, -97, -41, 74, -31, 29, -17, 6, 51, -35, 88, 30, -61, -10, 18, 14, 11, 49, 71, 36, 
	-16, -9, 25, 72, 26, -49, 18, -21, 31, 7, -73, -42, -49, 113, -74, 41, -28, -34, 24, 10, 
	78, 6, -20, 28, 28, 2, 43, 9, -22, 4, -41, 40, -6, 74, 36, -1, 85, 54, -45, -3, 
	63, -31, 28, 83, 41, -18, 40, -83, -23, -102, 4, 30, -48, -2, 39, 72, -16, 56, 19, -54, 
	-39, 45, 135, 76, 7, -35, 12, 70, -64, -11, -60, 67, 134, 32, 4, 66, -37, -56, 92, 70, 
	-10, -41, -16, -22, 6, -36, 22, 24, -22, -39, -4, 70, 21, 26, -35, -27, -2, 70, 106, -17, 
	33, -4, 1, -58, -109, 115, 60, 71, 16, -65, 63, -42, 38, -29, 21, -44, 98, 11, 115, -109, 
	28, -68, 10, 7, -22, -47, 86, -8, 5, 5, 37, -109, -4, -49, 13, -65, 130, -20, -79, 56, 
	26, 61, -74, -22, 84, -136, 46, -78, 37, -12, -16, 54, -60, 19, -108, 11, 32, 83, 37, 41, 
	-12, 61, -11, 65, 0, 6, -22, 26, -12, -2, 105, 41, -5, -76, -3, 1, -40, -89, -40, 2, 
	1, 18, 46, 0, 10, -14, 0, 59, -28, 53, -80, 48, -47, -30, -48, -49, -27, 20, -31, 62, 
	-19, -52, 6, 12, 9, -23, 21, 52, -29, -2, 27, -43, -48, 60, -22, -41, -132, 25, -38, 30, 
	70, 11, -49, 66, 24, 22, -102, 49, 9, 2, -22, -40, -47, -24, 50, 53, 22, 6, 34, -6, 
	15, 39, -38, 16, 41, 15, 58, 9, 8, 4, -61, -11, 54, 19, -27, 0, -110, 39, -31, 2, 
	98, 6, 2, 69, 18, -39, 28, -8, 53, 34, 19, -32, 4, -1, -45, 37, -64, -40, -45, -72, 
	-27, -3, -35, 38, 19, 6, 18, 67, 18, -11, -35, -37, -46, 22, 84, 24, -21, 45, -17, -7, 
	11, 3, 51, -70, 76, -5, 72, -92, 11, -39, 124, 30, -18, 97, -83, -18, -42, -63, -28, 23, 
	0, -25, -28, 30, -3, -18, 25, -55, 21, -16, -84, 100, 56, 126, 86, -60, -61, 50, -85, -17, 
	22, -81, -78, -15, 16, -25, -41, 31, 1, 10, -79, 47, 55, 70, 102, -1, 73, -50, 8, -9, 
	21, 46, 74, -19, 4, 24, -38, -32, -35, -39, 0, -30, 20, 31, 25, 46, 87, 14, 7, 20, 
	-9, -5, 33, 48, 31, 1, -45, -50, 19, -1, -6, 66, 19, -11, 51, 50, 54, 24, 23, -3, 
	31, -52, -10, -17, 34, 4, 18, 0, -96, 25, 26, 66, -19, 38, 55, 9, -4, -10, 11, -54, 
	24, -46, 62, 0, -27, -24, 21, 12, -62, 9, 24, -103, -19, -30, 43, -70, 64, 2, 87, -69, 
	112, -1, -14, 10, -21, -38, 105, -9, 25, 20, 60, 10, 51, -63, 84, -51, 161, -8, 26, 57, 
	33, 100, 0, -45, 102, -19, 29, -67, 72, -29, -13, -20, -5, 24, -49, 13, -29, 63, 9, 11, 
	-42, 117, 29, 25, -16, -3, -41, 23, 38, -16, -30, 52, 13, -53, 124, -17, 43, 9, 32, 136, 
	-37, -57, 48, 47, 29, 27, -9, 43, 33, -9, -34, -3, -8, -12, 7, 2, 85, 21, -27, 65, 
	29, 27, 45, 71, 22, 30, 78, -16, 0, -12, -51, -8, -66, -8, -11, -56, 100, 31, 52, 17, 
	59, -43, -22, 24, 69, 70, -3, 20, 46, -5, 97, -23, -30, 59, 39, 46, -28, 57, 21, 4, 
	20, 29, -5, 52, -26, -33, -97, 3, -33, 39, -20, 32, 20, -39, -20, 51, -33, -28, 21, 32, 
	-3, 14, 7, 52, -55, -37, -5, 74, -41, 9, -20, 25, -18, 14, -2, 43, 0, -7, 33, -16, 
	36, 30, 38, -59, -15, -29, -13, -96, -16, -94, 7, -21, 38, 16, 45, 29, 14, 22, -17, -32, 
	-7, -66, 93, -48, 43, 26, -14, -2, -9, -10, 29, -19, 47, -12, -23, 11, -34, -70, 37, -79, 
	-14, 29, -4, -70, 3, 14, -24, 6, -12, -22, 0, 42, -2, -60, 37, -44, 6, -18, -20, -47, 
	-20, -12, 20, -32, -67, -31, -19, 37, 80, -43, 2, -23, 39, -23, -46, 116, 4, 7, -51, 58, 
	45, -76, 126, -1, 37, -2, -18, -47, -3, -14, -41, 22, 12, 31, -14, 29, 1, -39, -18, -38, 
	-46, 11, -35, -24, -9, -42, -20, -2, 30, -2, 14, -24, -44, 12, 8, -34, -37, 0, -13, 0, 
	5, 13, -25, -8, 42, -5, 13, -54, -16, 4, -13, -10, -16, -16, -23, 3, -16, -3, -13, -33, 
	-7, -46, 46, -29, 22, -40, 36, -77, -10, -20, -25, 16, 3, -13, 21, 48, -29, -45, 7, 20, 
	-31, -17, 12, -3, -19, 26, 56, 76, 47, 1, 17, 18, 26, -6, -30, -7, -28, -17, 18, 42, 
	-32, -59, -8, 57, -62, -16, -5, -3, -44, -41, 29, -17, -4, -82, 55, -78, -23, -19, -37, -34, 
	-21, 23, -35, -24, 34, 8, -81, 2, -2, -55, -42, -32, -16, -32, -66, -38, -76, -79, 19, 15, 
	11, 40, 116, 44, -67, 88, -60, 24, -36, 66, 21, 11, 0, -48, 15, -27, -10, -14, -44, 50, 
	21, 82, -88, -3, 17, -31, -39, 12, -107, -37, -21, -16, 63, -1, -14, 52, -77, 11, -27, 64, 
	-19, 17, -47, 25, 19, 34, -38, 3, -15, 54, -40, -100, -34, 43, 32, 73, 22, 13, -62, 57, 
	-40, -9, -31, -17, -32, -12, -8, 11, -70, -27, -1, 44, 9, -20, 20, -25, -63, 19, -4, 20, 
	49, 7, -18, 7, -25, -25, -52, -30, 46, -7, -27, -23, -76, 29, 27, 35, -35, 56, 19, 19, 
	-45, 63, 33, -33, -27, 41, 40, 75, 12, -40, 14, -33, -9, 54, -13, -24, -1, -36, 12, -94, 
	27, -19, 45, -49, 38, -30, 54, 11, 25, 12, -58, 4, 52, -84, 53, -61, 10, -21, 89, 25, 
	32, 54, 53, -14, -41, 25, 7, 2, 51, -3, -4, -36, -56, 26, -73, 34, 10, -15, -7, -49, 
	19, 36, 53, 64, 36, 11, 9, -43, 3, 54, 40, -55, -41, 45, 83, 58, -46, -28, -73, -8, 
	-34, -84, -19, 66, -12, -31, -91, 39, 3, 20, -60, 4, -28, -16, -33, -46, -12, -54, 14, -3, 
	-52, 6, 37, -55, -20, -25, 30, -7, -59, 57, -5, -4, 66, 24, 4, -131, -3, 6, -16, 41, 
	17, 43, -40, 26, -55, 44, 46, 52, -6, 37, 8, 0, -93, 25, 8, -18, -48, -15, -7, -26, 
	56, 56, -31, 20, 8, -3, 0, 61, 22, 7, 72, 24, 77, 26, -18, 29, 24, -7, 11, 23, 
	80, -22, 76, -8, 27, -27, 38, 1, -34, -6, 43, 18, 37, -20, 17, -65, -69, 14, 41, -1, 
	-69, 4, -10, -61, 101, -7, 14, 38, -41, -10, 6, 42, 144, -29, -47, -19, -25, -5, -5, -21, 
	69, 0, 3, -19, -34, -43, 75, 42, -38, -10, 24, -58, 17, 84, 62, -54, -67, -59, 51, 132, 
	-48, 40, -21, 91, 27, 56, 15, 61, -3, -17, 117, 92, 24, 64, 56, 5, -11, 3, -101, 41, 
	120, 41, 37, 59, -72, -3, 49, -4, 11, -45, -119, -103, 61, -81, -40, -26, -22, -101, 7, 9, 
	17, -6, 9, -55, 27, 40, 80, -71, 51, -66, -37, -5, -92, 15, 4, 41, 3, -124, 148, -89, 
	27, 25, 31, -24, -16, -12, 106, 33, 122, 69, 9, 1, 24, -34, 47, -30, -98, 3, 21, 2, 
	16, 23, 60, -48, 87, -1, 9, 61, -25, 146, 89, -10, 114, 16, -65, -51, 41, -40, -36, 1, 
	7, -17, -41, 9, 78, 0, -27, 23, -8, 108, 36, -17, 87, 0, 54, 24, -22, 45, 5, -23, 
	29, 90, 0, -51, -66, -70, -26, 4, 21, 50, -15, 53, 42, 56, -25, 21, -2, -22, 72, 33, 
	24, 27, 38, -1, -49, -43, -53, -6, -12, -11, -28, -21, -83, -36, -47, 28, 35, -41, -67, -98, 
	117, -37, 32, -24, 15, -53, -28, -3, -8, -6, -66, -46, -2, -39, 4, 82, 21, -13, -10, -10, 
	-42, -31, -23, 39, 21, -37, -14, 40, -77, -40, 16, -1, -23, 28, -22, 12, -68, 31, -19, 32, 
	30, 65, -3, 85, -18, 17, 15, -40, 6, -45, -71, 20, -52, 8, 39, -30, 6, -88, -2, 49, 
	-19, 34, -40, -12, -14, 7, 46, 14, -19, -34, 16, 35, -41, -4, 49, -23, -2, -48, -29, -29, 
	-33, 68, 32, 9, 0, 4, 14, 0, -36, 0, 4, 0, -76, 43, 4, 14, -37, 58, 25, 39, 
	-21, 71, 16, 55, 35, 70, -27, 25, 10, 33, -34, -1, -32, -22, 0, 65, -30, 28, 20, 34, 
	-56, -40, 35, 17, -16, -25, -95, 9, 24, -98, -33, -39, 48, -48, 8, -66, 4, -39, -50, 0, 
	0, -26, -62, -63, -31, -14, -44, 10, -21, -49, -78, 8, -24, -27, -67, 65, 35, 40, -13, 0, 
	-36, -49, 48, -2, 37, 13, 2, 1, -23, -26, -33, 22, -7, -20, -26, -19, -10, -32, -22, -35, 
	52, 30, 29, -32, 44, 24, -14, 8, -30, 36, 44, -15, 5, 71, -39, 50, -61, 52, -31, 43, 
	0, 39, 35, -7, 35, 2, -17, 0, -27, 20, 6, -21, 5, -69, -58, 13, 53, -69, -45, 22, 
	-49, 56, 2, 49, -25, 54, -39, -32, -35, -8, 6, 58, 48, -32, 20, 9, -28, 60, -21, 21, 
	-2, -52, 18, 41, 53, 27, 24, 44, -84, 25, -37, 39, 19, -20, 13, 31, 38, -40, 28, 24, 
	-12, -43, -21, -36, -8, 66, -59, -119, -16, -62, -23, 54, -10, 23, -2, 0, -11, -22, -41, 6, 
	-32, -23, 58, 0, 56, -4, 70, -49, 29, 5, 60, -11, 6, -2, -39, -35, -31, -48, -60, 20, 
	-35, -26, -47, -5, 25, -36, 47, -47, -26, 25, -71, 77, 4, 26, 56, -78, -38, 61, -30, 67, 
	39, -41, -42, 28, -14, 16, -74, 18, 98, -23, -29, 66, 18, 125, 31, 35, 86, -24, 98, -56, 
	-25, 83, 113, 20, 4, 86, -43, 23, 47, 41, 24, -31, 52, 15, -77, -61, -13, -79, 42, -51, 
	-29, -25, -46, -24, -14, 27, -2, 29, -6, -15, 83, -103, -57, 0, 26, -46, -75, 6, -12, -44, 
	48, 15, 16, 14, 30, -2, 8, 31, 116, 3, -34, -30, 4, 12, 61, -69, 53, -6, -23, -28, 
	34, 0, 9, 16, 49, -27, 48, -33, 65, 23, -19, -7, 18, 8, 79, -51, -54, -47, -7, -19, 
	-116, 62, -29, -32, 43, 14, -31, -3, 2, -34, -38, 89, -55, 1, -71, -10, -5, 12, -83, -37, 
	-37, 0, 37, 34, -35, 56, -47, 27, -10, 25, 6, -19, -16, -26, -8, -6, -8, -54, -71, 49, 
	29, -67, 66, -24, 77, 24, 77, -52, 22, 7, -44, -47, 7, 43, 73, 8, -30, -64, 31, 51, 
	-49, -56, -49, 55, 0, 56, -11, 38, 68, 5, -66, 67, -15, 41, -28, 43, -24, 31, 20, 65, 
	-145, 59, -41, -4, 76, -46, -21, 55, 13, 59, -20, 92, -20, 2, -30, -35, 91, -21, 24, 29, 
	80, -76, -69, -9, 56, 24, -51, -109, 22, 44, 30, -32, -4, 72, 50, 19, 6, 78, -46, -9, 
	-33, 27, -58, -25, 0, 33, 30, -49, -13, 26, 0, 32, -51, 53, -72, 6, -32, -55, -22, -17, 
	-81, -10, -67, 2, -68, 62, -67, 1, 17, 9, 0, 23, -73, 28, -34, 33, 31, 42, -39, 9, 
	-25, 10, -38, 22, -26, -16, 30, 37, 23, 9, -118, -28, -5, 34, -65, -107, -5, 26, -23, 51, 
	-24, -1, 12, -43, -15, -7, -19, -34, 15, 18, 8, -21, 58, -55, -61, -45, -39, 41, -11, -34, 
	12, 6, 22, 8, -20, 4, -58, 36, 93, 5, 92, -7, 48, 10, -34, 0, 82, 19, 23, 0, 
	-11, -40, 36, -47, -67, 43, -45, 74, 17, -40, 2, 48, -50, 7, 23, 49, 6, 20, 58, 9, 
	-39, 44, 110, 24, -30, 9, 9, 29, -6, 52, -28, 2, -27, -7, 73, -32, -108, -19, 42, 91, 
	54, 35, 9, 28, -53, -16, 23, 29, 21, -15, 50, -33, -26, 60, -48, 32, -69, 32, -37, -31, 
	-104, 56, -21, 21, -13, 1, -15, 46, 61, 19, 33, -46, -40, -55, -37, -82, 17, -31, -17, 19, 
	-7, 47, 18, -9, 8, -63, -124, 2, 12, -50, 96, 43, 7, 22, 41, 8, -45, 0, 45, 19, 
	-38, 18, 29, 37, 51, -22, -7, 67, -20, -20, -8, -23, 64, 2, 11, -48, 15, 58, 21, 30, 
	-40, 4, -21, -36, -8, 25, -46, 46, -25, -35, -13, 54, 44, -29, 40, -3, 29, 4, -38, -39, 
	20, 65, 49, -25, 51, 46, -27, 20, 31, -19, 40, -14, 1, 6, 48, 37, -1, 109, -1, 17, 
	-26, -18, -1, -1, 10, -25, 52, 11, 7, 14, 13, 11, 5, 58, 5, -16, -21, 16, 93, 36, 
	17, 55, -36, 21, -137, 8, -46, -11, -12, 38, -42, -29, 18, -62, 13, 59, 132, -8, -29, -80, 
	0, 50, -25, -147, 15, -19, -48, 15, -19, -41, -46, 59, 22, -30, -51, 57, -20, -24, 55, 8, 
	-23, 47, -8, 93, -36, 32, -67, 39, 30, 33, -4, 46, 67, -26, -14, -15, -59, -8, 52, 51, 
	0, -22, 17, 44, -73, -81, 0, -15, 22, 25, 0, -5, -2, 42, 20, 50, -92, 28, 40, -74, 
	32, -5, -25, 35, 24, 22, 10, 25, -43, -55, 1, -33, -78, 61, 74, 69, 24, 49, 67, -16, 
	-26, 80, -8, 32, -74, -52, -41, -74, 5, -65, 14, -119, 55, 17, -82, -12, -47, 21, 30, 23, 
	-38, 28, 17, 66, -1, -84, 20, 23, 32, -105, 32, 8, -43, -96, -3, 40, -4, 9, -2, -5, 
	-153, 24, -130, -32, -17, -42, 31, -31, -101, 11, -104, -140, -25, 19, -28, -31, 31, -117, -98, 1, 
	-13, -90, -2, 50, -153, -20, -59, -2, 8, -8, -56, -5, 34, -4, -71, 32, -17, -41, -8, -36, 
	-30, 23, 10, 5, -9, 19, -20, 11, 37, -38, -23, -68, 49, 44, -52, -126, -48, -45, 62, -22, 
	-66, 9, -40, -64, 56, -9, -4, -23, -74, 0, -20, -27, -101, -24, -13, 40, -28, 5, -33, 33, 
	-162, -7, -78, -51, -62, 19, -114, -11, 12, -90, -82, -31, -9, 36, -29, 46, -64, -44, -53, 16, 
	54, -31, -60, 29, -7, 27, -34, -113, -18, -27, 32, 45, -164, -70, 55, -38, 56, 39, -76, -51, 
	5, 19, -23, 6, -45, -189, 27, -70, 27, -59, 69, -83, 16, 48, 24, 43, -37, -26, -46, 14, 
	81, -64, 32, -68, 35, -36, -1, 104, 41, 32, -75, -12, 3, -35, -56, -17, 4, -17, 29, -175, 
	15, 23, -15, -18, 19, 7, -121, -178, -37, -34, 11, 29, -180, -12, -87, 62, -112, -41, 27, 31, 
	-79, -29, 33, -36, -208, 57, 11, -48, -10, -32, -48, 2, 14, 55, -9, 34, 0, -46, -197, 50, 
	31, -110, -32, -51, 25, 48, -73, -5, 31, -45, 28, -69, 27, 43, 39, -85, -15, 26, 43, -5, 
	-25, 52, -111, 33, -8, -86, -17, -7, 43, 28, -7, 69, -23, -30, -6, 25, -76, 4, 27, 44, 
	48, -78, -26, -61, -21, -29, -76, 44, -28, 13, -34, -48, 37, 26, -58, 33, -72, 57, 38, -29, 
	3, 21, -5, 18, 13, 41, -79, 51, -8, -59, -54, -8, 43, -56, -9, 31, -13, -78, -112, 15, 
	-129, 0, -12, -108, -28, 48, -27, 2, 1, -29, -7, -9, 48, -5, 19, 48, 21, -25, -16, 48, 
	-65, -4, -90, 56, 24, -139, -73, -7, 25, -45, -36, -134, -43, -54, 29, 39, -80, 19, -74, 4, 
	-1, 85, 26, 70, -62, 23, -6, -59, -56, -94, -98, -119, 41, 5, -11, 23, 3, 27, 18, -52, 
	-65, -20, -132, -93, 13, 17, -30, -19, -60, 55, -15, -17, 46, -81, -82, -75, -4, -32, 49, 24, 
	-24, 15, -19, 30, -21, 2, 9, 3, 15, 3, 38, -38, -9, -85, -37, -20, -100, 33, -25, 46, 
	7, -3, -37, -43, 49, -8, 10, -61, 29, -40, -6, 10, 1, -72, -44, -18, 54, -22, -8, -77, 
	-61, -3, -92, 59, 58, 2, -137, 44, -28, 18, 22, -2, 35, 13, -170, 58, -26, -68, -33, -78, 
	35, -55, -111, -33, 34, 6, -116, 23, -11, -27, 47, -4, 12, -163, 21, -22, -83, -32, -31, 43, 
	-100, -176, -116, -20, -36, -155, -159, -40, 20, -55, -3, 8, -164, 47, 13, -16, -65, -140, -95, -79, 
	8, 5, 23, 24, 0, -47, 67, -52, 5, -120, 59, 36, -30, -24, 28, 64, -30, 74, -50, -50, 
	-28, -35, -7, -50, 3, -78, -44, 48, -32, 32, 38, -64, 17, -55, -21, 62, 36, 5, -31, 24, 
	68, -40, 46, 12, 58, 23, -79, 31, -152, -5, -45, -32, -41, -95, -109, 22, -94, -2, -95, 35, 
	1, -9, 5, -5, 57, -14, 12, 79, -61, -40, -55, 77, -149, -2, 30, 100, -19, -63, 27, 1, 
	53, 71, 27, 14, 60, -22, -65, -58, -142, 23, -67, 43, -35, -15, 30, 13, -121, -101, 55, 24, 
	7, 36, 47, -27, 8, -85, 27, 22, -7, -59, 33, -116, -68, -3, 32, -75, -50, -5, 4, 23, 
	-24, 87, -22, 29, 60, -4, 36, 10, -182, -22, 47, -73, -61, 83, 1, -4, 66, 40, 57, 27, 
	3, -74, 0, 27, -59, -26, 5, -23, 14, -6, -12, -58, 38, -120, -112, 17, -25, 25, 47, -20, 
	17, 8, 36, -3, -75, -63, -38, 41, -58, -63, -65, 7, 19, -28, 37, -5, 21, -41, -148, 5, 
	-27, 39, 0, -23, 66, -86, -65, -10, -166, -41, -136, 74, 45, -1, -50, -133, -11, -5, -91, 43, 
	5, 33, -29, 60, -49, -32, -52, 16, -31, -52, 19, -39, 14, 35, -57, -27, 18, 31, -4, 13, 
	44, 27, -111, -45, 21, 9, -88, -39, 13, -93, -77, -78, 55, 25, 25, 50, -32, -139, -34, -64, 
	-61, -71, -121, -46, 29, 25, 0, 26, 38, 28, 2, -80, -41, -54, -132, 11, 14, -82, -37, -7, 
	-78, -29, 20, -23, 49, -113, 21, 0, 13, -31, -34, 83, -23, -40, -27, 0, -3, 23, -6, 56, 
	26, -20, -159, 14, -91, 62, 21, 15, 50, 17, -17, 50, -4, 14, 61, -2, -2, -90, 42, -13, 
	-5, -18, 34, -24, 13, -81, -27, 37, -121, 8, 6, -25, 20, -19, -69, 8, -12, 26, -102, -69, 
	6, -57, 39, 46, 44, -147, 0, -41, 26, -96, -12, 39, -38, -163, -115, -118, 4, 43, 31, 0, 
	41, 1, -88, -34, 42, 29, 60, -4, -53, 59, -67, 12, -43, -78, 39, 19, -1, 41, 58, -193, 
	46, -90, 27, -61, -34, -46, 59, -20, -26, 25, -33, -24, -11, 26, 61, 14, 28, -99, -73, -26, 
	-31, -43, -25, 34, 3, -24, 17, -48, -7, 0, 12, 56, 56, -22, -78, -38, -84, -97, -62, 40, 
	11, 42, 0, -51, 30, -108, -189, -37, 71, 28, 53, 42, -58, 51, -77, -25, -80, -41, -53, -26, 
	-5, 11, 44, -41, 37, 33, 29, -3, -29, -76, -57, 20, 0, -23, -78, -100, -25, 20, -39, -8, 
	-118, -54, -48, 17, 30, -48, 53, 26, -10, -61, -136, -16, -65, 28, 25, 26, -73, -4, 66, -7, 
	-129, 10, -79, -56, -4, -31, -15, -178, -55, -42, -44, -18, -42, 56, 23, -52, 37, 54, -7, 61, 
	-29, 36, -3, 47, 12, -11, 35, 56, 53, 23, 25, -52, -50, -64, -92, 20, -94, -46, -38, -202, 
	-37, 0, 33, -116, -121, 53, 2, 45, 12, -42, -2, 20, 8, -68, -73, 1, -123, -14, 5, -78, 
	-12, 54, -79, -106, 13, -74, 1, 40, -64, 35, -144, 41, -25, 3, -14, -75, 87, -10, -6, 36, 
	20, -41, 29, -34, 26, -9, 28, 27, 3, 37, -29, -49, 30, -14, 1, 84, -63, 37, -44, -64, 
	22, -35, -79, 4, 45, 2, -49, 0, 22, -55, -77, 18, -109, 27, -1, -1, -50, -7, -21, -175, 
	-13, -13, -56, 67, 48, -84, -67, 17, -96, -29, 9, -26, -41, 33, -14, -17, -62, 18, 49, -101, 
	-13, 59, -35, -17, -12, 26, -131, -3, 25, -1, -31, 51, -28, -29, 21, -57, 19, 4, -54, 30, 
	3, -57, -34, -27, -36, -24, -83, -41, -16, 40, 3, 9, 13, 67, -32, 22, -169, -83, -164, -68, 
	11, -87, 42, -97, -29, -99, 92, -40, 43, 6, -51, -69, -228, -28, -59, 69, -47, 60, -2, -101, 
	8, -90, -48, -105, 108, -175, -16, -9, -20, 68, -41, -35, 52, 18, -42, -23, 65, -63, -47, 4, 
	130, -39, 71, 63, -18, 24, -82, -70, -14, -8, -161, 13, -20, 45, -41, 46, 27, 20, -56, -27, 
	-29, -6, -48, -12, 72, -50, -79, 34, -177, 33, -99, -106, -110, -10, -46, -52, 0, -40, -22, -12, 
	95, 25, -17, -67, -63, -84, 20, 46, -36, 9, 35, 18, 8, 34, -1, 46, 0, -72, 73, -17, 
	-86, 33, 42, 17, -9, 9, 64, 33, -1, -88, -18, -28, -104, 33, -44, -32, -60, -136, 5, 29, 
	-42, -43, 34, 44, -82, -37, -82, -19, -11, -124, 46, -39, -119, 16, -29, -125, 5, 13, -23, -79, 
	6, -8, 
	};

#pragma PERSISTENT(baseline_biases)
_q baseline_biases[] = {
	0, -94, 111, 12, -154, 188, -26, -56, 100, 56, 127, 82, -30, -101, 77, 28, 14, -46, -5, -60, 
	72, -3, 36, 102, 25, 91, -35, -58, 2, -36, -17, 62, -35, 31, -27, 4, -36, 18, -77, -1, 
	3, 45, 20, 74, 27, -9, 10, -28, 39, 52, -22, 38, 49, 37, 21, 51, -40, -24, -32, 73, 
	72, 19, 15, 38, 73, 49, -34, 88, 30, 31, 103, -75, 14, -44, 138, 2, 7, -9, -16, -3, 
	3, -39, -17, 17, 8, -16, 26, -13, 63, 64, 32, 9, 28, -22, 17, -1, 17, -41, -22, -49, 
	15, -13, -46, 15, 56, 6, 8, 28, 12, 20, 33, -5, 29, 15, -3, 37, 0, 0, -65, -14, 
	25, 13, -2, 20, 19, 41, 24, 66, -40, -1, 3, 12, 12, 13, 27, 26, 6, 12, -4, 30, 
	-11, -40, -53, -3, 28, -46, 9, 55, -44, 17, -13, -13, -23, 3, 8, 52, 42, 26, 31, -18, 
	15, 7, -45, 12, -41, -4, 31, -7, 65, 5, 43, -16, 0, 13, 21, 23, 24, 10, -50, -41, 
	18, 35, 23, 11, 17, 38, 40, -12, -8, 10, -20, 45, -18, 2, 13, -21, 18, -10, -11, -14, 
	0, 51, -46, 19, -27, -50, -73, 8, 5, 79, 82, -77, -2, -60, 140, 21, 
	};
